digraph Tree {
node [shape=box, style="filled, rounded", color="black", fontname=helvetica] ;
edge [fontname=helvetica] ;
0 [label="num_major_vessels <= 0.5\ngini = 0.5\nsamples = 100.0%\nvalue = [0.49, 0.51]\nclass = disease", fillcolor="#f5fafe"] ;
1 [label="cholesterol <= 174.5\n0.41\n58.7%\n[0.29, 0.71]\ndisease", fillcolor="#88c4ef"] ;
0 -> 1 [labeldistance=2.5, labelangle=45, headlabel="True"] ;
2 [label="cholesterol <= 164.5\n0.47\n3.2%\n[0.62, 0.38]\nno disease", fillcolor="#f5cdb0"] ;
1 -> 2 ;
3 [label="0.0\n1.3%\n[0.0, 1.0]\ndisease", fillcolor="#399de5"] ;
2 -> 3 ;
4 [label="0.0\n1.9%\n[1.0, 0.0]\nno disease", fillcolor="#e58139"] ;
2 -> 4 ;
5 [label="exercise_induced_angina_yes <= 0.5\n0.39\n55.5%\n[0.27, 0.73]\ndisease", fillcolor="#80c0ee"] ;
1 -> 5 ;
6 [label="sex_male <= 0.5\n0.32\n42.6%\n[0.2, 0.8]\ndisease", fillcolor="#6ab6ec"] ;
5 -> 6 ;
7 [label="st_depression <= 0.05\n0.13\n16.8%\n[0.07, 0.93]\ndisease", fillcolor="#48a5e7"] ;
6 -> 7 ;
8 [label="0.34\n5.2%\n[0.21, 0.79]\ndisease", fillcolor="#6fb8ec"] ;
7 -> 8 ;
9 [label="0.0\n11.6%\n[0.0, 1.0]\ndisease", fillcolor="#399de5"] ;
7 -> 9 ;
10 [label="cholesterol <= 228.0\n0.41\n25.8%\n[0.29, 0.71]\ndisease", fillcolor="#8bc6f0"] ;
6 -> 10 ;
11 [label="0.0\n8.4%\n[0.0, 1.0]\ndisease", fillcolor="#399de5"] ;
10 -> 11 ;
12 [label="0.49\n17.4%\n[0.44, 0.56]\ndisease", fillcolor="#d2e9f9"] ;
10 -> 12 ;
13 [label="max_heart_rate_achieved <= 143.5\n0.5\n12.9%\n[0.47, 0.53]\ndisease", fillcolor="#e8f3fc"] ;
5 -> 13 ;
14 [label="max_heart_rate_achieved <= 136.5\n0.3\n6.5%\n[0.81, 0.19]\nno disease", fillcolor="#eb9e67"] ;
13 -> 14 ;
15 [label="0.17\n4.5%\n[0.91, 0.09]\nno disease", fillcolor="#e88e4d"] ;
14 -> 15 ;
16 [label="0.48\n1.9%\n[0.6, 0.4]\nno disease", fillcolor="#f6d5bd"] ;
14 -> 16 ;
17 [label="thalassemia_fixed defect <= 0.5\n0.22\n6.5%\n[0.12, 0.88]\ndisease", fillcolor="#55abe9"] ;
13 -> 17 ;
18 [label="0.48\n2.6%\n[0.4, 0.6]\ndisease", fillcolor="#bddef6"] ;
17 -> 18 ;
19 [label="0.0\n3.9%\n[0.0, 1.0]\ndisease", fillcolor="#399de5"] ;
17 -> 19 ;
20 [label="chest_pain_type_atypical angina <= 0.5\n0.36\n41.3%\n[0.76, 0.24]\nno disease", fillcolor="#eda876"] ;
0 -> 20 [labeldistance=2.5, labelangle=-45, headlabel="False"] ;
21 [label="sex_male <= 0.5\n0.23\n32.9%\n[0.87, 0.13]\nno disease", fillcolor="#e99457"] ;
20 -> 21 ;
22 [label="st_slope_flat <= 0.5\n0.45\n9.7%\n[0.65, 0.35]\nno disease", fillcolor="#f3c5a4"] ;
21 -> 22 ;
23 [label="cholesterol <= 298.5\n0.26\n5.8%\n[0.85, 0.15]\nno disease", fillcolor="#ea985d"] ;
22 -> 23 ;
24 [label="0.0\n5.2%\n[1.0, 0.0]\nno disease", fillcolor="#e58139"] ;
23 -> 24 ;
25 [label="0.0\n0.6%\n[0.0, 1.0]\ndisease", fillcolor="#399de5"] ;
23 -> 25 ;
26 [label="fasting_blood_sugar_lower than 120mg/ml <= 0.5\n0.41\n3.9%\n[0.29, 0.71]\ndisease", fillcolor="#88c4ef"] ;
22 -> 26 ;
27 [label="0.0\n0.6%\n[1.0, 0.0]\nno disease", fillcolor="#e58139"] ;
26 -> 27 ;
28 [label="0.0\n3.2%\n[0.0, 1.0]\ndisease", fillcolor="#399de5"] ;
26 -> 28 ;
29 [label="age <= 51.5\n0.12\n23.2%\n[0.94, 0.06]\nno disease", fillcolor="#e78946"] ;
21 -> 29 ;
30 [label="cholesterol <= 259.5\n0.49\n3.2%\n[0.57, 0.43]\nno disease", fillcolor="#f8e0ce"] ;
29 -> 30 ;
31 [label="0.38\n1.9%\n[0.25, 0.75]\ndisease", fillcolor="#7bbeee"] ;
30 -> 31 ;
32 [label="0.0\n1.3%\n[1.0, 0.0]\nno disease", fillcolor="#e58139"] ;
30 -> 32 ;
33 [label="age <= 58.5\n0.03\n20.0%\n[0.98, 0.02]\nno disease", fillcolor="#e5833d"] ;
29 -> 33 ;
34 [label="0.07\n9.7%\n[0.96, 0.04]\nno disease", fillcolor="#e68641"] ;
33 -> 34 ;
35 [label="0.0\n10.3%\n[1.0, 0.0]\nno disease", fillcolor="#e58139"] ;
33 -> 35 ;
36 [label="st_depression <= 0.35\n0.4\n8.4%\n[0.28, 0.72]\ndisease", fillcolor="#85c3ef"] ;
20 -> 36 ;
37 [label="0.0\n5.2%\n[0.0, 1.0]\ndisease", fillcolor="#399de5"] ;
36 -> 37 ;
38 [label="st_slope_upsloping <= 0.5\n0.41\n3.2%\n[0.71, 0.29]\nno disease", fillcolor="#efb388"] ;
36 -> 38 ;
39 [label="thalassemia_reversable defect <= 0.5\n0.5\n1.9%\n[0.5, 0.5]\nno disease", fillcolor="#ffffff"] ;
38 -> 39 ;
40 [label="0.44\n1.3%\n[0.67, 0.33]\nno disease", fillcolor="#f2c09c"] ;
39 -> 40 ;
41 [label="0.0\n0.6%\n[0.0, 1.0]\ndisease", fillcolor="#399de5"] ;
39 -> 41 ;
42 [label="0.0\n1.3%\n[1.0, 0.0]\nno disease", fillcolor="#e58139"] ;
38 -> 42 ;
}